{
  "biases": [
    [
      0.594696832665853,
      0.055780493624012634,
      -0.09569313868123352,
      -1.3454038718762107,
      -0.8217347484865857,
      0.06817116484613528,
      -0.6585196229275455,
      -0.1285383152983267,
      0.6043174729597716,
      0.38207917086442195,
      1.8230444300234434,
      0.7344466927028043,
      0.751543327268539,
      0.7504159813409454,
      -0.8323972430427651,
      0.3380659629354149,
      -0.715557702966034,
      -0.1883657806993808,
      0.6998183596431717,
      -1.580302000888837,
      1.0032243285305493,
      -0.5806176243635461,
      -1.3124006597006899,
      1.090764505837663,
      -0.17130452367001187
    ],
    [
      2.2344299084089734,
      -1.8392582259359647,
      -0.3755929158138729,
      2.4868815100843387,
      0.9329530735781786,
      0.2956392159581922,
      -2.1837823391387348,
      -0.44791573528826734,
      -1.3043717371017811,
      -1.4813066360091725,
      -1.1527427862080164,
      2.6823223774305553,
      -1.225972856311167,
      -0.12327757019017255,
      1.2976162715055306,
      1.5328926065003987,
      0.12371851270044434,
      -0.1189606019056676,
      -0.008416463247944983,
      -1.360528872867663,
      -0.4979461879156591,
      0.27274023073621617,
      -1.070951936134902,
      1.9946578064378073,
      -0.9328847566566496
    ],
    [
      -1.0694962616217083
    ]
  ],
  "weights": [
    [
      -0.6456156072207269,
      0.5300765526134477,
      -0.44070873172412117,
      -1.5519140612643254,
      -0.6985271090746825,
      0.25297939368263234,
      -0.3822572914953811,
      0.046292833413354106,
      -0.7807470053688028,
      0.7477656280927939,
      0.40818595053227713,
      -1.1932209472495048,
      0.5878835150444994,
      -0.9472228607836009,
      -0.3680357060703785,
      -0.009604588430142114,
      -1.0007079840791406,
      -0.32908111679642515,
      -0.9559863385838221,
      -0.8529655922290269,
      0.9781471981415301,
      1.5930372495142129,
      -0.29123704513596493,
      0.6294517684711655,
      -0.21350761506172758,
      0.32591596393414335,
      -0.12155642997331004,
      0.1797231072934058,
      0.8572848993434404,
      0.24369877040225918,
      -0.39980269401902624,
      -0.7485697614584628,
      0.40929987024482106,
      0.6851406688686035,
      -0.1818314717372338,
      1.0781572111928477,
      -1.2300255601341925,
      -0.5047137610109567,
      -0.8357962956531588,
      0.7133994552941042,
      0.695451437957656,
      -0.25911853130250295,
      -0.6154763643599417,
      -0.42772796775272703,
      -0.018720027296367653,
      -1.0614919584649718,
      0.5067746447038681,
      0.8945870327940336,
      -0.8694491839387819,
      -1.0114002432528442,
      0.511641950165001,
      1.329807267413424,
      -1.3403245358566804,
      -0.15765025973862112,
      -1.6759803845154206,
      0.01382421682510554,
      -0.4559270749789083,
      0.9326811711105871,
      -0.9359060424148089,
      0.6304016657491998,
      1.1573318887966075,
      1.933097225295361,
      -0.3168349756656022,
      -0.4913517009766416,
      -0.36356157993967503,
      -1.8364302606979015,
      0.26318084057351765,
      -0.36191574678021043,
      0.6470111344097162,
      1.139033209454018,
      0.5394715439014055,
      1.1562032929372097,
      0.2872354437806591,
      -1.0455077022993606,
      0.7607802026011443,
      -1.469155593670394,
      -0.05332117436284006,
      -0.204808488304568,
      0.13458171906800498,
      -0.2256464898238939,
      0.1614146714181225,
      -1.010980325027293,
      0.8366811486452772,
      -1.0981837982523812,
      0.8395786417108364,
      0.7269174282583108,
      -0.32284890085505197,
      1.8726776236949942,
      1.0083989071909816,
      1.4844468676823743,
      -1.4966412097960082,
      -0.5177767208116509,
      -1.6129036058147699,
      -1.2655795425560754,
      1.4782693910006568,
      -0.03736825972059943,
      -1.1785892285377302,
      -0.5503574199396599,
      -1.294340515267363,
      0.1934109666695521,
      -0.8596217168759654,
      1.0767772792501034,
      -0.005319559057649914,
      0.9938480905812902,
      -0.2940359340696138,
      1.1197797168424175,
      -0.06646872207126697,
      -1.2237185167214477,
      0.9999261942150279,
      0.6238743652607472,
      0.2646548493485863,
      1.0610540972175353,
      -0.31917416603229803,
      -0.8769426127788564,
      -2.523647589928279,
      -1.4850809396186755,
      0.006804991242536196,
      -0.5211972004932672,
      -0.15917075347410758,
      -0.05488147185717096,
      2.240233971389206,
      -1.7283364821280653,
      0.3865918511888602,
      0.9012698545617779,
      -0.8026979504920249,
      -1.1616996803700932,
      1.1720026471673486,
      -1.36054471153552,
      -0.4597803521177438,
      2.0546923383935174,
      -1.3293811207079385,
      -0.7853588291929399,
      -1.1236698889372683,
      -0.1368761533104468,
      0.8065593522614114,
      1.4470581579393462,
      0.5824069241985437,
      -1.224963766129905,
      -0.25006527892633557,
      0.7875885716916582,
      -1.0288702035373913,
      0.46307789630095986,
      -2.1005407977963495,
      0.39427958492566173,
      0.35342057382719017,
      1.591900835780451,
      -0.455021865487092,
      -0.9384944178762833,
      -0.9105347095652739,
      -1.2372975618848612,
      0.02804094610012242,
      0.4481876226360455,
      -0.4385881531259619,
      0.9599777235400766,
      -0.23476130705939208,
      -1.3201654303697843,
      -1.7726787713612109,
      -1.4606721119270811,
      0.6900495189430134,
      -0.4432624009012567,
      -0.5840827867563142,
      2.013709338921439,
      -1.130672480120288,
      -1.8775573516465442,
      -2.5539594432989374,
      -0.1803616530643308,
      -2.1641736340127697,
      -0.8697463397907818,
      -0.21454737550326397,
      1.5057024827766519,
      -0.3808962020426229,
      -2.3625378710885774,
      -1.306998759228571,
      -0.4540954119111954,
      -1.6181229932855166,
      2.4960745169293777,
      0.6663327253859548,
      0.6630937779261743,
      0.7277825042326223,
      -0.4391383259317392,
      1.396116623910034,
      0.06859238390093303,
      -0.8835687392550147,
      -0.3709374807796413,
      0.5960793433237299,
      -0.6847524500089864,
      -0.09337047525253966,
      0.1662224430303577,
      -0.36909037129716743,
      0.39854681334154973,
      -0.1639674746992198,
      -0.7951660313259096,
      -1.7390253121475936,
      -1.6416427547316061,
      -0.5354565694759561,
      0.4929916942417778,
      -0.6593467688847092,
      -1.0745514293964904,
      0.09132073310575589,
      0.6616624214804584,
      0.23767389200127886,
      0.4080125117369775,
      2.33413861657656,
      -0.015800932152905928,
      0.3911444445591239,
      1.0963449001069758,
      0.6090461848249573,
      1.5025924780084732,
      0.03169610056734862,
      1.1360485092533323,
      -0.5365437498156358,
      0.8322244222359756,
      -0.7398828111382801,
      -0.7529155680168627,
      0.9525447411934844,
      -0.8476006711786619,
      -0.5512556827827104,
      -0.35569661891737847,
      -0.8459050022849723,
      -0.5806133403168465,
      -1.603817404577807,
      0.21143760853821725,
      -0.8658026329571791,
      -1.8256663804255007,
      -0.40935463780210024,
      0.22519031232251496,
      -0.9132030160973912,
      0.8176793610908528,
      -2.106484693347587,
      -0.5460979622777327,
      0.3111576142581519,
      -0.36581932782526577,
      0.04883142252765538,
      0.11800635392658432,
      0.9730360977480601,
      -0.44405894791210443,
      -1.4817325083872737,
      0.8822899814121593,
      -0.3877698309830771,
      1.206303403334013,
      0.6648673208704075,
      -0.36293058595685734,
      0.25614174836180814,
      -0.5520278811560221,
      1.5563735589080026,
      0.4208486399198935,
      -0.5086653832564954,
      0.8333451265260592,
      -0.2519651841592063,
      -0.6670169562258426,
      1.3872989061233563,
      -0.15969260168831312,
      1.4118697472018376,
      -0.5324692921702516,
      -1.110322196600424,
      1.15788228190388,
      -0.8967694005191752,
      1.3451796772810611,
      0.18798951202092695,
      0.4075502765863504,
      -0.1714051485656386,
      -0.48229105548157525,
      -0.12070988067486099,
      0.3267217862944376,
      0.9162045610935758,
      1.1383948469404765,
      -0.03858862248586287,
      -0.6025062383318467,
      -0.02120680872938152,
      1.1310363909071066,
      1.9348549409376528,
      -0.2205681346376042,
      0.13085853834188232,
      -0.7893501493004823,
      -0.5249464463271554,
      1.9212661086678295,
      0.5499310375531091,
      1.5223414795424457,
      -1.13729473331334,
      -1.4030246874544536,
      -0.7585688627980127,
      0.8299188073127868,
      0.6570827687161904,
      -0.4791955215485809,
      0.053371105533663865,
      0.4556652145925719,
      -0.7545878133418815,
      0.42193201778047007,
      -1.0280091277428416,
      -0.2926430688114816,
      -0.2564148822490955,
      0.0779795995373247,
      -0.3506223814365298,
      0.02693050509103967,
      0.5888785399624114,
      0.7558501749528624,
      -1.3117400048936578,
      -0.572979240033432,
      0.14952295865498477,
      1.8208488392637272,
      0.4827600147049058,
      -0.4028018013834901,
      -0.8672328583094977,
      0.41715614452059635,
      -0.08574343704124743,
      1.1067556583666471,
      -0.7645087850131563,
      -1.530572003943706,
      -0.4434546349506799,
      -0.4631421478297398,
      -0.5932108557522314,
      -0.049464166144645494,
      -0.5514467230906086,
      0.4445247018313857,
      -0.9242021940875732,
      -1.8382117498793935,
      0.3253020207386039,
      -1.1629221295564327,
      2.238298060661439,
      1.0521342071668953,
      0.7709652836431177,
      0.7551081168511686,
      -2.141984122533528,
      -0.1365107610602631,
      -0.7030638825349653,
      -0.5284343218145976,
      -0.7332788185948419,
      0.8001145085607436,
      0.038331957094488445,
      0.4045352823791568,
      1.0858703418204882,
      0.20218223338545538,
      0.4968485857564653,
      -0.1968292010206838,
      0.3062284534299472,
      -1.5631311762223767,
      0.5228034874282467,
      0.3688047830528173,
      0.3298423723793844,
      0.7518378155978223,
      -0.5667020385569443,
      0.2202600401061332,
      1.4698664357576607,
      -0.22189712654113736,
      -0.26162395745620287,
      -0.6838535441143949,
      1.7456344111648725,
      0.45137360392218184,
      -2.034413942771236,
      -0.981255950179544,
      -0.18656840155090215,
      0.38582782491958406,
      -0.6072534047895748,
      1.8401515008616993,
      0.01441550444974049,
      -1.0972047483090017,
      0.9673111967569163,
      0.8666140823690419,
      -0.4507956157059212,
      0.224147936043409,
      1.0939370908594466,
      -0.18202838635227758,
      0.3977582700514708,
      0.8117679864513322,
      0.5332458639295032,
      0.21948345172191525,
      2.46663495438347,
      0.2792947899537036,
      0.40199742675542893,
      -0.2701613602820601,
      0.45088536726976713,
      1.2829666132223383,
      -0.3495364747086488,
      0.5774012763819085,
      -1.7659423282061981,
      -1.1083962288329912,
      1.022636613027971,
      0.9561050370746118,
      0.29988389326449394,
      -0.7533120497792228,
      -1.085793214561655,
      -0.6128979360544379,
      2.080225148027328,
      1.194845294693711,
      0.2508315420049816,
      -3.0409471814076596,
      -0.29308283786588785,
      0.41160759816200043,
      -0.10067240246660827,
      -1.723545343908015,
      0.10271416688380408,
      -1.3749228537319746,
      -1.3402423380732533,
      1.2446411511515794,
      -0.45125780733936693,
      1.2149196165729395,
      -0.5000922070715896,
      1.918263922881687,
      -1.674444511285368,
      1.8580649256936557
    ],
    [
      1.3090950302062703,
      0.6420600881320185,
      2.5773863980393514,
      0.48903133209946714,
      0.07991207395339295,
      -1.8440423497688534,
      -0.6430621728500135,
      -0.18836072377861157,
      0.425988962927458,
      -0.19659916793721527,
      -0.9603138478930859,
      0.7701734432781759,
      1.1769702366691615,
      0.7812398877353971,
      -1.5384842937425132,
      -0.9613986071765268,
      1.4878711311058606,
      -0.48436400848347105,
      1.7375127392906808,
      -0.061549644904966214,
      1.4278826586656372,
      0.5909273384507794,
      -0.7213983577247568,
      -0.10325494300013954,
      0.8369729425364263,
      1.284893076247573,
      -0.1511537645489605,
      -0.8272327382081093,
      -0.40131388087437503,
      -0.6909170209614102,
      -1.1469107804112681,
      -0.6911217955718474,
      -1.8767654153958797,
      0.6798214209810495,
      -0.03356517760907318,
      0.7097799091431461,
      -1.4528405188157445,
      -1.8397446387792187,
      -0.20243674740277873,
      -2.240766707762779,
      -0.183711699539232,
      -1.4685450225661012,
      0.8138778486326653,
      0.5967270987076927,
      -1.693068086001788,
      -0.7210713902480682,
      1.2805951403393134,
      0.21354413754788926,
      -0.5818931185303898,
      0.035627690568648174,
      0.06667285209850338,
      1.0827441569673635,
      0.5551425470693468,
      0.8394762176116861,
      -0.24832391846704094,
      0.2183599180642345,
      1.0236896014975914,
      0.941643576642849,
      0.89901450728433,
      0.6826131536371824,
      1.4857087976151355,
      -1.981941141764941,
      0.8062627365970948,
      -1.563859668853481,
      0.7352458777354456,
      0.9461259485443613,
      -2.0366051745889635,
      0.6520569783316001,
      0.7205616589668045,
      0.3741231402036877,
      -2.6403035441835345,
      0.7492124665662924,
      1.0474273684124489,
      0.7625500726527175,
      -0.458442086350783,
      1.1241448322332988,
      2.5985452713029815,
      -0.40265309488707857,
      -1.4142036933315794,
      0.4685615137333854,
      0.15324968922650728,
      -0.8474458615712193,
      -0.3640834355652016,
      0.7636528925608578,
      0.2852715430828491,
      -0.6078801665092639,
      -0.6858423357475458,
      0.4469294297559667,
      0.2820984121261958,
      0.7742448328553753,
      0.3960968849993842,
      -1.1086907557292915,
      0.7934072743433336,
      -1.0635666870970564,
      0.31466501618201165,
      0.9129107235524567,
      0.018153779339751264,
      -0.13355486822893933,
      -0.4157596932484564,
      1.9888279964650124,
      1.882700259800434,
      0.41141013579722685,
      -1.0857226553887234,
      -0.5322915623813023,
      -0.39531275665524834,
      1.1661892724712593,
      0.6379699026437246,
      1.4939716491061426,
      -0.3272508009311955,
      0.5912014242332884,
      0.1669524102989257,
      1.0752389758123617,
      -1.3435845136809954,
      0.0666662127786383,
      -0.6541024209918029,
      -1.713239893279455,
      0.8427727415139471,
      0.7997997859480571,
      -1.1451434230083497,
      0.7088546476182408,
      -0.8935993327189867,
      0.2417995637128889,
      -0.5541095763928163,
      -1.063903369273102,
      1.3048796337845614,
      0.702260739802451,
      -0.44789498665254435,
      -0.30114643415455317,
      -1.480843201035869,
      -0.8756947202403269,
      0.24300409013249027,
      -0.7585561064040818,
      -1.3542913737530067,
      -0.7407271209515498,
      0.10031394407314181,
      -1.2188590145664995,
      -1.4989352870441102,
      -1.3359549777787023,
      0.21001269015972857,
      1.0417859301523444,
      -0.6651684953141501,
      -0.9382335937516659,
      0.06137626294231113,
      -0.7792119378399187,
      -0.06130578854626201,
      0.45130529381952433,
      -1.4331289656165458,
      1.6657106190536501,
      -1.1608362940423254,
      -0.32551616563336616,
      -0.07783646974747871,
      -1.3315881086721366,
      1.5579920445533297,
      -0.8997732402994885,
      0.6463410343423961,
      1.4572758969761428,
      -0.3301043744131873,
      -0.0021059429355368142,
      0.27850309414656593,
      -1.0794223898020316,
      1.7940371282485579,
      -0.18455785809001335,
      -0.5764550182095154,
      0.5364525512178923,
      1.7398067220203326,
      -2.064217123695403,
      -0.2661163655599387,
      -1.2676116808246944,
      -0.5597138705366396,
      0.6503323547949265,
      -0.7073259691114586,
      -0.4064448280396091,
      0.6468462609814144,
      -1.4240466222181851,
      0.7461367257172092,
      0.33145522598741295,
      -2.673491979229506,
      0.4179842389816999,
      -0.5946254853433457,
      -0.3323710470948036,
      0.9862531558685813,
      -0.4733086401805589,
      -0.5020218399001911,
      0.7844652069736513,
      -0.6386841313981559,
      0.1538181558348612,
      1.3238910259928294,
      -0.6946721703052807,
      -1.8742370994848407,
      -0.37862270801685916,
      -0.4689672858735212,
      -0.07798896957455828,
      0.9769523177453185,
      -0.8785176202189864,
      0.48493692785625075,
      -0.0006587580069936649,
      -1.0577269166643315,
      -0.5662995984936747,
      0.14124678199671714,
      -0.2617020324613145,
      -0.21722029943614274,
      -1.0775418359997464,
      -0.400976421615252,
      -1.145293602766899,
      -2.0095606835045654,
      -0.7222416965715212,
      1.2916752881922045,
      1.1411816208647119,
      0.39244769038438926,
      -0.3176986659773198,
      -0.5595817494088084,
      -0.23906428195788448,
      0.2254916307856073,
      0.4505322519185673,
      -0.9951917601848147,
      -0.7829611050957297,
      -1.258601031916628,
      1.7397544822566104,
      -1.048616661616296,
      2.5879711011839106,
      -0.5941090180321642,
      3.1289829504634668,
      -0.20932295217923613,
      0.8240741607026107,
      -2.8067971463664207,
      0.08909828484799792,
      1.2047807864285507,
      -0.1770969703379136,
      -0.2892115438153553,
      0.06849314788592381,
      0.4226924173154417,
      -1.4857084346331533,
      -0.25419443852436163,
      0.04709853668886932,
      0.49102151556347506,
      -0.31912208334881786,
      0.846909426813591,
      0.8118875388287394,
      -1.0262406794898133,
      -0.19730456329883822,
      0.7105138572802642,
      -0.17511464087189363,
      -0.34561747604829907,
      -0.3660936163876035,
      -0.9936643617558407,
      -0.07032763716623014,
      -1.3049287403507925,
      1.7012763161847275,
      0.98509609849525,
      0.39832299189217557,
      0.5137974437747,
      0.0009600174296893749,
      0.4918621590464075,
      1.203746837736113,
      -0.022124773093332634,
      0.708505760132633,
      -0.07302059281591727,
      1.434611474731441,
      -0.9703763198115487,
      -1.6720167936830466,
      -0.25272854073881745,
      -0.1570317068799416,
      0.246877816608217,
      0.1548412888881759,
      2.311334908462437,
      0.33620073827158614,
      -0.3723019594503717,
      -2.479228653615455,
      0.2581672267696591,
      1.3012771058665382,
      0.47910095239593586,
      -0.2935414882395948,
      0.12091121643837877,
      0.5000720140114505,
      1.4083593977660485,
      -1.3582470908759081,
      -2.4371225935085055,
      1.964384758226812,
      -2.1797265926445233,
      -1.085037095525272,
      0.61053000303804,
      -0.10862660029304702,
      -0.6070400877403009,
      0.7776547157728285,
      -0.9890834816004562,
      -0.4372012148988613,
      1.3651067640576011,
      0.28821393612071833,
      0.8731658043486523,
      0.09546422671350871,
      0.0782134453275668,
      -0.3864452916667629,
      0.09375930489752848,
      0.11390837017279282,
      -0.6911924962662556,
      -1.1580720294929896,
      -0.839433774955511,
      1.2757032669431563,
      0.5649968504172431,
      -0.6444304333490238,
      -0.9892942518356858,
      0.6630907267394608,
      -1.0433089179382753,
      0.9762568897269258,
      2.2053443028343906,
      -0.07327267507358004,
      0.8815245418522594,
      0.19767141342907163,
      -0.32512212608618807,
      1.7531537834329072,
      2.329744990904923,
      0.6423388397711112,
      -0.19635826672097711,
      0.755318092920792,
      -1.5321609640477596,
      0.3332680769883265,
      1.1528944342804461,
      0.5535114235117463,
      0.6735738801233865,
      -0.6152141147900887,
      -0.0992137069549015,
      0.8080381099632818,
      -0.63200496040339,
      0.15102358107338165,
      -2.552953686178839,
      -0.19248038334903572,
      -0.6909252731419347,
      0.3219133281861024,
      0.20129595073697515,
      -0.34831747620356124,
      -0.18988922846510495,
      -2.112230894312262,
      -0.9738575939045652,
      -0.07819413796563279,
      0.8771467993885618,
      -0.5542375750122203,
      0.7141915198451416,
      1.117649123647074,
      1.674744881512019,
      -0.5057821817815333,
      -0.8951701788607558,
      0.3776644157911804,
      -2.020541971393925,
      0.843271993661874,
      -1.3415879351906839,
      0.8614288522679808,
      1.763126333777627,
      0.820995350642313,
      -1.149896471377488,
      0.5508200331093247,
      0.7948035379895783,
      -1.4589036103162205,
      0.9716715295173659,
      0.5390410504535988,
      -0.2880681601709964,
      0.6079990340343566,
      -0.2953262432361675,
      0.24255244168014234,
      -1.1507639403151044,
      0.6357045676154798,
      0.7440639753769931,
      0.3532318632551794,
      -0.35591973892480866,
      1.1197561511692125,
      1.7968156327970486,
      2.0089939747123178,
      0.33454734429820077,
      0.9514609756371031,
      1.4017043516372005,
      -2.2253539768610016,
      -1.0488137426757638,
      0.10260338138331679,
      -0.0257912026976653,
      -0.26736977724680533,
      1.5574828326385366,
      0.4230009086245232,
      -0.36862132824278887,
      -1.4241672319741174,
      -0.03053710111049429,
      -0.7356855630659895,
      -1.14333796234882,
      0.05157866953822532,
      0.21144002309892007,
      -0.5520409365142126,
      1.4720732230499045,
      0.8262966851364846,
      -1.633617114285983,
      -1.3372517101560726,
      -1.4772926523326513,
      -0.4949058432372049,
      -1.51299201693652,
      1.543502123528912,
      0.5905775388832182,
      -0.4141629000966489,
      -0.47613102528498347,
      -0.7016153989178647,
      2.025664263015619,
      0.8461012700308167,
      0.3437183672736061,
      0.8911338809187763,
      -1.1084697435061073,
      0.5905550583725481,
      -0.7057859427347044,
      -0.3227027236591853,
      -0.26317173153586754,
      1.1251377736552683,
      1.860026891843999,
      1.07690811118546,
      0.5898479145713995,
      0.07943105454911681,
      -0.0660637331641018,
      0.5467619487389912,
      -0.40399119126068217,
      2.0401427910837495,
      -0.7522228785126065,
      1.1453062393299906,
      1.2107600377077907,
      -0.7079896753846051,
      -0.4174825371602324,
      -0.10435744395765792,
      -0.9605901464180304,
      -1.1001943497162718,
      -1.6461021954104744,
      -0.7198827196240007,
      0.3454500963296362,
      0.5608946484937737,
      -0.8672690199664488,
      -0.26822191190373057,
      -0.043976283206875744,
      0.9817373958662587,
      1.2973244072448005,
      0.1260649317387943,
      0.7949886873852485,
      -0.5521301426058824,
      0.12576832118661813,
      0.3743203231465664,
      -1.0076667948879026,
      -0.5893651470014594,
      -0.34072044570898097,
      -1.0712179848682335,
      -0.7088606393477762,
      -1.0143137234782071,
      -0.5452932007859275,
      -1.606077489615469,
      -0.4611829291294716,
      -1.877419884259583,
      -0.007606992102507593,
      -0.06507235351983046,
      -0.0632789336746816,
      -0.2103204673802035,
      1.1963971010651486,
      1.9559597035966803,
      -1.2801380981520416,
      2.1009944908381906,
      -0.5137779848870081,
      -2.0241490332273178,
      -0.03583147553613153,
      -0.7670735495454688,
      -0.00737147452423581,
      -0.2527336359805856,
      0.4184310358159973,
      -0.5799885222228203,
      -2.031901908105324,
      1.287345876778864,
      -1.4959625621443382,
      0.4524433701039635,
      -0.6356102293652914,
      -0.6877924175255752,
      1.8405263140343926,
      1.6535169327053683,
      -0.08129941914719563,
      0.5699232148290944,
      0.09562123053642768,
      1.0405098928889385,
      -0.11021950047180329,
      -0.6455638260244173,
      2.375706623648691,
      -0.7130476102447616,
      -0.09824385443777583,
      0.5506697997246746,
      -0.7118480198950172,
      -0.08592167968515363,
      1.2560848833228868,
      -0.5937193938704688,
      -0.6885622052000515,
      -1.5409738480363009,
      0.43789767277574576,
      0.8271510487050477,
      -0.9627226773812357,
      0.10265713328480586,
      0.9975716569469162,
      0.8159064589581932,
      -0.11723464504139233,
      0.47512412911856294,
      -1.0067405645637466,
      -0.6305032999241539,
      -0.7029266592101513,
      -0.13106573674244767,
      0.326690320375799,
      -0.7057260600876774,
      0.10900633729763742,
      -0.663578137090113,
      -0.8087717681946703,
      -0.06871040975192755,
      -1.7021975737686468,
      -0.3116789610531212,
      -0.7244186871057073,
      0.012201029448450751,
      -0.5905026290362683,
      0.527598575822394,
      -0.44724141697496833,
      -0.7461598881542795,
      0.2353396940356973,
      0.6824418441172142,
      -0.3679972058843264,
      -0.40512255195793045,
      0.45747754883048586,
      -0.13775044232194933,
      -0.5213791147867457,
      0.4090105939410227,
      0.6683897282026117,
      0.6006780675188308,
      -1.150226036715457,
      -1.2430324670525967,
      -0.8263519175614409,
      -1.1756134433572503,
      -1.528555746759217,
      0.518408753902228,
      -1.1351148708927497,
      -0.8458712125527231,
      -1.2510345244138539,
      -1.9805754639568263,
      -2.1672222798005705,
      0.08702802650170915,
      0.2102865952977498,
      0.25986309482638564,
      -0.47646291162112675,
      -2.356579640316369,
      -0.8736973099269792,
      -2.435938773351858,
      -1.5793715651478277,
      0.6300367866597565,
      -0.10311732781696087,
      2.0831412575688515,
      0.31458385225689167,
      -0.47656049612672224,
      -0.4582602717987305,
      -0.6246053462565042,
      1.2671747257463004,
      -1.5218515372286483,
      2.011481636474193,
      -1.5406661204392469,
      0.3431262030601939,
      0.24881744537999723,
      0.1393961164600448,
      -0.8341001899816325,
      -2.074875807224871,
      0.889633405715821,
      -0.42543778875354765,
      1.0506665719448165,
      0.10504706171648093,
      -1.2763807659378423,
      0.43013344320115976,
      -0.24168966035525624,
      0.6108720626449035,
      -0.7164686799722969,
      0.5164439143383723,
      -0.284263709001502,
      -0.5605826711375352,
      0.45245063585588186,
      0.3184726836221505,
      -0.6561611923620465,
      -0.17215755070914707,
      0.7281039057592531,
      1.14696836892338,
      0.951428169807627,
      -0.49705328784973357,
      0.9499691151689229,
      -1.3372743379202963,
      -0.6531591346549778,
      -0.2523880976117171,
      0.24789432973753023,
      0.28241045082232075,
      -0.2902124451974659,
      -0.15839065426047017,
      0.4859395609508752,
      1.3070190183003991,
      -0.3681690433702538,
      1.3974173850272957,
      0.08975222934644034,
      -1.4340249790959274,
      0.37194782631684054,
      -1.0051692686676708,
      0.4819596842405407,
      -0.8357831967329677,
      -0.32739843830005877,
      0.06385447904380681,
      0.9437540660796513,
      -0.8536443425122533,
      1.3589360763035723,
      0.5665537075128493,
      -1.0797490769974827,
      -0.48233116962917233,
      0.699681593807996,
      -1.3520682259913264,
      -0.9469433033121688,
      -0.1420942428517502,
      -0.1492835679799427,
      -1.1129624098302024,
      -0.4506239623561683,
      -1.5500777241769983,
      -0.4024982460063058,
      0.25551824918546173,
      -0.8774757957567848,
      -0.031867677496510094,
      0.9510670214261133,
      0.34180329684931654,
      1.0965592456951478,
      1.5851221139150606,
      0.6424827778922071,
      -0.886044715070809,
      0.6705387390735723,
      -0.11315685410513066,
      -0.45439787077697297,
      0.1809464201418623
    ],
    [
      0.2832285634291807,
      1.8628908523697927,
      -1.8723896198156136,
      0.329334953182313,
      -0.44291819711831537,
      -0.15174021473767318,
      0.3805332139227343,
      0.7942417996760645,
      0.1481688357484301,
      1.0442379042719703,
      -1.5388027420557362,
      1.604042200057942,
      -1.8472771802018917,
      1.593947148328124,
      0.022879778818473417,
      -0.6722122862058459,
      -0.5779723733029063,
      -0.43322059964437387,
      -0.44710942714431656,
      0.6906213068683249,
      -0.7039447349739667,
      1.1326509841981016,
      0.11543324002455133,
      -0.8738948187769537,
      0.05866198802693323
    ]
  ]
}